digraph Tree {
node [shape=box] ;
0 [label="AvgAbsDiff-y <= 1.377\ngini = 0.489\nsamples = 284\nvalue = [121, 163]"] ;
1 [label="Bin10,x <= 0.084\ngini = 0.074\nsamples = 157\nvalue = [6, 151]"] ;
0 -> 1 [labeldistance=2.5, labelangle=45, headlabel="True"] ;
2 [label="AvgAcc-x <= -0.874\ngini = 0.038\nsamples = 154\nvalue = [3, 151]"] ;
1 -> 2 ;
3 [label="gini = 0.0\nsamples = 2\nvalue = [2, 0]"] ;
2 -> 3 ;
4 [label="AvgAbsDiff-x <= 2.181\ngini = 0.013\nsamples = 152\nvalue = [1, 151]"] ;
2 -> 4 ;
5 [label="gini = 0.0\nsamples = 151\nvalue = [0, 151]"] ;
4 -> 5 ;
6 [label="gini = 0.0\nsamples = 1\nvalue = [1, 0]"] ;
4 -> 6 ;
7 [label="gini = 0.0\nsamples = 3\nvalue = [3, 0]"] ;
1 -> 7 ;
8 [label="TimeDiffPeaks-z <= 82.605\ngini = 0.171\nsamples = 127\nvalue = [115, 12]"] ;
0 -> 8 [labeldistance=2.5, labelangle=-45, headlabel="False"] ;
9 [label="Bin3,x <= 0.017\ngini = 0.034\nsamples = 115\nvalue = [113, 2]"] ;
8 -> 9 ;
10 [label="gini = 0.0\nsamples = 2\nvalue = [0, 2]"] ;
9 -> 10 ;
11 [label="gini = 0.0\nsamples = 113\nvalue = [113, 0]"] ;
9 -> 11 ;
12 [label="AvgAbsDiff-y <= 1.942\ngini = 0.278\nsamples = 12\nvalue = [2, 10]"] ;
8 -> 12 ;
13 [label="gini = 0.0\nsamples = 10\nvalue = [0, 10]"] ;
12 -> 13 ;
14 [label="gini = 0.0\nsamples = 2\nvalue = [2, 0]"] ;
12 -> 14 ;
}